digraph Tree {
node [shape=box, style="filled", color="black", fontname="helvetica"] ;
edge [fontname="helvetica"] ;
0 [label="Income <= 2200.0\ngini = 0.725\nsamples = 20\nvalue = [2, 9, 1, 4, 2, 2]\nclass = car", fillcolor="#e0f7c1"] ;
1 [label="Income <= 1050.0\ngini = 0.72\nsamples = 10\nvalue = [2, 0, 0, 4, 2, 2]\nclass = metro", fillcolor="#cee6f8"] ;
0 -> 1 [labeldistance=2.5, labelangle=45, headlabel="True"] ;
2 [label="Age <= 12.0\ngini = 0.625\nsamples = 8\nvalue = [2, 0, 0, 4, 2, 0]\nclass = metro", fillcolor="#bddef6"] ;
1 -> 2 ;
3 [label="Gender <= 0.5\ngini = 0.444\nsamples = 3\nvalue = [2, 0, 0, 0, 1, 0]\nclass = bicycle", fillcolor="#f2c09c"] ;
2 -> 3 ;
4 [label="gini = 0.0\nsamples = 2\nvalue = [2, 0, 0, 0, 0, 0]\nclass = bicycle", fillcolor="#e58139"] ;
3 -> 4 ;
5 [label="gini = 0.0\nsamples = 1\nvalue = [0, 0, 0, 0, 1, 0]\nclass = scooter", fillcolor="#8139e5"] ;
3 -> 5 ;
6 [label="Income <= 250.0\ngini = 0.32\nsamples = 5\nvalue = [0, 0, 0, 4, 1, 0]\nclass = metro", fillcolor="#6ab6ec"] ;
2 -> 6 ;
7 [label="gini = 0.0\nsamples = 3\nvalue = [0, 0, 0, 3, 0, 0]\nclass = metro", fillcolor="#399de5"] ;
6 -> 7 ;
8 [label="Age <= 23.5\ngini = 0.5\nsamples = 2\nvalue = [0, 0, 0, 1, 1, 0]\nclass = metro", fillcolor="#ffffff"] ;
6 -> 8 ;
9 [label="gini = 0.0\nsamples = 1\nvalue = [0, 0, 0, 0, 1, 0]\nclass = scooter", fillcolor="#8139e5"] ;
8 -> 9 ;
10 [label="gini = 0.0\nsamples = 1\nvalue = [0, 0, 0, 1, 0, 0]\nclass = metro", fillcolor="#399de5"] ;
8 -> 10 ;
11 [label="gini = 0.0\nsamples = 2\nvalue = [0, 0, 0, 0, 0, 2]\nclass = taxi", fillcolor="#e5399d"] ;
1 -> 11 ;
12 [label="Income <= 19500.0\ngini = 0.18\nsamples = 10\nvalue = [0, 9, 1, 0, 0, 0]\nclass = car", fillcolor="#a8e84f"] ;
0 -> 12 [labeldistance=2.5, labelangle=-45, headlabel="False"] ;
13 [label="gini = 0.0\nsamples = 9\nvalue = [0, 9, 0, 0, 0, 0]\nclass = car", fillcolor="#9de539"] ;
12 -> 13 ;
14 [label="gini = 0.0\nsamples = 1\nvalue = [0, 0, 1, 0, 0, 0]\nclass = helicopter", fillcolor="#39e581"] ;
12 -> 14 ;
}